<?xml version="1.0"?>
<opencv_storage>
<cascade>
  <stageType>BOOST</stageType>
  <featureType>LBP</featureType>
  <height>30</height>
  <width>30</width>
  <stageParams>
    <boostType>GAB</boostType>
    <minHitRate>9.9900001287460327e-01</minHitRate>
    <maxFalseAlarm>5.0000000000000000e-01</maxFalseAlarm>
    <weightTrimRate>9.4999999999999996e-01</weightTrimRate>
    <maxDepth>1</maxDepth>
    <maxWeakCount>100</maxWeakCount></stageParams>
  <featureParams>
    <maxCatCount>256</maxCatCount>
    <featSize>1</featSize></featureParams>
  <stageNum>18</stageNum>
  <stages>
    <!-- stage 0 -->
    <_>
      <maxWeakCount>4</maxWeakCount>
      <stageThreshold>-1.7195878028869629e+00</stageThreshold>
      <weakClassifiers>
        <_>
          <internalNodes>
            0 -1 5 -3145730 -3625 1393653244 -10496513 -72619013
            -70540597 -70779909 -2098177</internalNodes>
          <leafValues>
            -8.9479333162307739e-01 5.6576067209243774e-01</leafValues></_>
        <_>
          <internalNodes>
            0 -1 121 2133840256 -11809 -642517537 -6302305 -19925543
            -74775926 -3407937 -42053</internalNodes>
          <leafValues>
            -6.6743165254592896e-01 5.7778984308242798e-01</leafValues></_>
        <_>
          <internalNodes>
            0 -1 150 -77594636 -2862889 -753847980 -4378153 704656000
            897695882 -1979514846 -1280579938</internalNodes>
          <leafValues>
            -5.8480787277221680e-01 4.6802142262458801e-01</leafValues></_>
        <_>
          <internalNodes>
            0 -1 103 639060000 530518427 2031326175 903303519 983645437
            -1148517720 -1836622913 -1213247341</internalNodes>
          <leafValues>
            -6.0284847021102905e-01 4.2744502425193787e-01</leafValues></_></weakClassifiers></_>
    <!-- stage 1 -->
    <_>
      <maxWeakCount>7</maxWeakCount>
      <stageThreshold>-2.4074630737304688e+00</stageThreshold>
      <weakClassifiers>
        <_>
          <internalNodes>
            0 -1 8 -134217746 -2886657 -778969633 -2360321 -112460805
            -69495603 -71565345 -2098433</internalNodes>
          <leafValues>
            -9.3748706579208374e-01 3.3821672201156616e-01</leafValues></_>
        <_>
          <internalNodes>
            0 -1 110 -44041344 -525313 -783705385 -140512817 -79969627
            -79445781 -73676113 2147482523</internalNodes>
          <leafValues>
            -6.6561478376388550e-01 3.9049699902534485e-01</leafValues></_>
        <_>
          <internalNodes>
            0 -1 190 6488066 356205059 16973838 353436171 251658242
            323176450 159605390 -201362633</internalNodes>
          <leafValues>
            -6.0808163881301880e-01 4.4336834549903870e-01</leafValues></_>
        <_>
          <internalNodes>
            0 -1 53 -135397388 -2106881 1493229516 -136662050 -78908451
            -81796773 -654058584 1474297695</internalNodes>
          <leafValues>
            -8.1837481260299683e-01 3.1151372194290161e-01</leafValues></_>
        <_>
          <internalNodes>
            0 -1 114 -1064910848 314298394 16778527 857448799 1887445314
            818545219 196692493 -1600654637</internalNodes>
          <leafValues>
            -5.5471003055572510e-01 4.9332323670387268e-01</leafValues></_>
        <_>
          <internalNodes>
            0 -1 44 -795427586 986851920 603982104 51185702 1284178058
            965345288 554305690 92471946</internalNodes>
          <leafValues>
            -5.2233201265335083e-01 4.5282730460166931e-01</leafValues></_>
        <_>
          <internalNodes>
            0 -1 133 -135266306 930814780 -272679116 1038387112
            628039822 2004759590 1124035722 -150374509</internalNodes>
          <leafValues>
            -4.0500769019126892e-01 5.4151952266693115e-01</leafValues></_></weakClassifiers></_>
    <!-- stage 2 -->
    <_>
      <maxWeakCount>7</maxWeakCount>
      <stageThreshold>-1.5578110218048096e+00</stageThreshold>
      <weakClassifiers>
        <_>
          <internalNodes>
            0 -1 9 -69206018 -2622465 -1718100993 -1025 -5243905
            -68240981 -78775297 -262145</internalNodes>
          <leafValues>
            -9.0242773294448853e-01 1.5968644618988037e-01</leafValues></_>
        <_>
          <internalNodes>
            0 -1 12 -1035014146 -100664833 -600711713 -537923077
            -69350401 -67919429 -5509125 2136862699</internalNodes>
          <leafValues>
            -7.0282644033432007e-01 3.4837388992309570e-01</leafValues></_>
        <_>
          <internalNodes>
            0 -1 188 319488275 1397193563 17235993 1372795691 327295114
            562765835 327551691 -217111601</internalNodes>
          <leafValues>
            -5.5952459573745728e-01 4.4394877552986145e-01</leafValues></_>
        <_>
          <internalNodes>
            0 -1 105 -134742278 -1860562000 356951548 -1354227168
            164655273 35651680 950405160 358683393</internalNodes>
          <leafValues>
            -5.6904411315917969e-01 3.7649518251419067e-01</leafValues></_>
        <_>
          <internalNodes>
            0 -1 115 -2228228 -11015841 -11535500 133222891 1058798588
            998836411 -1146642660 1068493486</internalNodes>
          <leafValues>
            -7.5272786617279053e-01 2.5301748514175415e-01</leafValues></_>
        <_>
          <internalNodes>
            0 -1 96 1621526168 1885658296 1655600180 1494952834
            854414372 1145315136 80479759 -2121579241</internalNodes>
          <leafValues>
            -3.8118216395378113e-01 5.2885282039642334e-01</leafValues></_>
        <_>
          <internalNodes>
            0 -1 87 1343651899 403833014 319852889 17973531 453124666
            321523847 374671595 592957807</internalNodes>
          <leafValues>
            -4.8216676712036133e-01 3.6090913414955139e-01</leafValues></_></weakClassifiers></_>
    <!-- stage 3 -->
    <_>
      <maxWeakCount>9</maxWeakCount>
      <stageThreshold>-1.7713437080383301e+00</stageThreshold>
      <weakClassifiers>
        <_>
          <internalNodes>
            0 -1 104 -783811102 -82603617 -619177704 -678342947
            -259880195 -1149173621 -1179002626 -1314097</internalNodes>
          <leafValues>
            -7.1881932020187378e-01 3.4926596283912659e-01</leafValues></_>
        <_>
          <internalNodes>
            0 -1 39 196643 388694178 50496016 903020734 1896055947
            4194504 1895934095 -406869094</internalNodes>
          <leafValues>
            -5.4212319850921631e-01 4.1639685630798340e-01</leafValues></_>
        <_>
          <internalNodes>
            0 -1 5 -36896770 -614662185 -1357497442 -705792561
            -619839570 -13950785 -46268482 -541327473</internalNodes>
          <leafValues>
            -8.2120436429977417e-01 2.0257286727428436e-01</leafValues></_>
        <_>
          <internalNodes>
            0 -1 58 49725694 412354830 138414156 135202346 536871070
            37240880 1049152 39659146</internalNodes>
          <leafValues>
            -6.5480637550354004e-01 3.5398203134536743e-01</leafValues></_>
        <_>
          <internalNodes>
            0 -1 61 -805175294 1381629955 319373390 457228941 1143545880
            319849472 151128080 822131214</internalNodes>
          <leafValues>
            -4.9213778972625732e-01 4.0499624609947205e-01</leafValues></_>
        <_>
          <internalNodes>
            0 -1 168 1474279313 1431393159 893456720 496042469 860422536
            -267911168 572588554 -1142466833</internalNodes>
          <leafValues>
            -4.4764646887779236e-01 3.9970025420188904e-01</leafValues></_>
        <_>
          <internalNodes>
            0 -1 54 -40108034 -610311917 255268348 2109710735 -343277572
            -1424260981 872427276 1066924973</internalNodes>
          <leafValues>
            -7.4179267883300781e-01 2.7536422014236450e-01</leafValues></_>
        <_>
          <internalNodes>
            0 -1 145 740214880 511716969 -1897005186 558309984
            1713428696 402154828 645157614 -1217973073</internalNodes>
          <leafValues>
            -3.9724245667457581e-01 4.5949134230613708e-01</leafValues></_>
        <_>
          <internalNodes>
            0 -1 46 235293578 467259743 -1689167361 520878170 2116016319
            1924710576 151025887 1326442715</internalNodes>
          <leafValues>
            -7.6846450567245483e-01 2.7617096900939941e-01</leafValues></_></weakClassifiers></_>
    <!-- stage 4 -->
    <_>
      <maxWeakCount>11</maxWeakCount>
      <stageThreshold>-2.0484335422515869e+00</stageThreshold>
      <weakClassifiers>
        <_>
          <internalNodes>
            0 -1 0 1938227899 1364545795 1099120770 1896342307
            1090715659 84115458 1128726666 -77075761</internalNodes>
          <leafValues>
            -6.1412870883941650e-01 2.9834711551666260e-01</leafValues></_>
        <_>
          <internalNodes>
            0 -1 8 -2 -545264649 -250872323 -4329665 -322716675
            -812023081 -653852673 -2379777</internalNodes>
          <leafValues>
            -7.5934612751007080e-01 2.5955626368522644e-01</leafValues></_>
        <_>
          <internalNodes>
            0 -1 154 -1605499328 83631668 1845296752 -1321236762
            -932045692 931037174 2000421630 -1243672993</internalNodes>
          <leafValues>
            -3.9924913644790649e-01 4.7602257132530212e-01</leafValues></_>
        <_>
          <internalNodes>
            0 -1 45 2017367019 292687579 82061950 295510714 1584512957
            461319164 78920154 -1413515793</internalNodes>
          <leafValues>
            -2.9376533627510071e-01 5.4717725515365601e-01</leafValues></_>
        <_>
          <internalNodes>
            0 -1 41 1073922048 -217837566 1052690 822100014 -1005420392
            16908416 1126170748 50544653</internalNodes>
          <leafValues>
            -4.7255173325538635e-01 3.1937196850776672e-01</leafValues></_>
        <_>
          <internalNodes>
            0 -1 88 -444534788 -141393169 459806940 -1090156341
            -632202771 -6602045 1220635368 339692187</internalNodes>
          <leafValues>
            -6.5208125114440918e-01 2.3335817456245422e-01</leafValues></_>
        <_>
          <internalNodes>
            0 -1 66 -892942196 2059928082 -2147203050 -2063400956
            -769535780 506986496 1342701572 -1824583514</internalNodes>
          <leafValues>
            -3.8430002331733704e-01 4.0677237510681152e-01</leafValues></_>
        <_>
          <internalNodes>
            0 -1 73 1243480712 961303148 67109542 1192886800 236026083
            -1837105022 167864942 -234551222</internalNodes>
          <leafValues>
            -4.2827498912811279e-01 3.4595748782157898e-01</leafValues></_>
        <_>
          <internalNodes>
            0 -1 21 -711721476 -778792365 1560731644 -1509491746
            -1710561095 2021900434 -628052580 1205828540</internalNodes>
          <leafValues>
            -7.7449351549148560e-01 2.0350107550621033e-01</leafValues></_>
        <_>
          <internalNodes>
            0 -1 200 850069694 1342881807 1744830466 1560494083
            285548683 8552451 1375929003 -371199857</internalNodes>
          <leafValues>
            -4.6370464563369751e-01 3.4570115804672241e-01</leafValues></_>
        <_>
          <internalNodes>
            0 -1 27 -293671185 -115151126 1693428782 -343095802
            2130181629 98512765 16218735 -1771084729</internalNodes>
          <leafValues>
            -3.8734984397888184e-01 4.1384854912757874e-01</leafValues></_></weakClassifiers></_>
    <!-- stage 5 -->
    <_>
      <maxWeakCount>12</maxWeakCount>
      <stageThreshold>-1.7794917821884155e+00</stageThreshold>
      <weakClassifiers>
        <_>
          <internalNodes>
            0 -1 162 -245388800 1368747349 1699811605 56758674
            -637435488 -1281359871 -1992279158 -1598318574</internalNodes>
          <leafValues>
            -6.6994029283523560e-01 8.0344729125499725e-02</leafValues></_>
        <_>
          <internalNodes>
            0 -1 42 -715915777 -71371716 1498885341 19866158 -760749861
            52330963 748796622 2012938659</internalNodes>
          <leafValues>
            -4.2202708125114441e-01 3.8697400689125061e-01</leafValues></_>
        <_>
          <internalNodes>
            0 -1 77 -671089792 -134226441 -310272001 -582749217
            -640417857 2024448137 -324407301 1598287855</internalNodes>
          <leafValues>
            -7.1427226066589355e-01 2.0247822999954224e-01</leafValues></_>
        <_>
          <internalNodes>
            0 -1 187 810485658 -1849208366 81994 -778833013 1627529354
            1107542023 1108048715 -3937366</internalNodes>
          <leafValues>
            -4.4462186098098755e-01 3.7540373206138611e-01</leafValues></_>
        <_>
          <internalNodes>
            0 -1 124 -797643672 2074649008 21041500 2066318752 545325536
            6553636 961415192 -914516293</internalNodes>
          <leafValues>
            -3.8485082983970642e-01 4.5092996954917908e-01</leafValues></_>
        <_>
          <internalNodes>
            0 -1 62 -730988474 1494351882 642 285245506 1736517256
            1359085576 1933806476 323159641</internalNodes>
          <leafValues>
            -3.8951596617698669e-01 3.9339837431907654e-01</leafValues></_>
        <_>
          <internalNodes>
            0 -1 15 2129452670 -717696993 -1123879124 -2128819506
            -384591401 -1315255271 -333381633 2145614521</internalNodes>
          <leafValues>
            -8.6390346288681030e-01 1.6155180335044861e-01</leafValues></_>
        <_>
          <internalNodes>
            0 -1 173 -782294876 1367556872 -1073610491 17121393
            1195487424 100729096 1093822490 -1836905557</internalNodes>
          <leafValues>
            -4.0115183591842651e-01 3.9302882552146912e-01</leafValues></_>
        <_>
          <internalNodes>
            0 -1 159 2076697340 401596551 21060062 -1323335005
            1209993768 186065553 16788266 -2110528845</internalNodes>
          <leafValues>
            -4.0486329793930054e-01 3.5934492945671082e-01</leafValues></_>
        <_>
          <internalNodes>
            0 -1 86 -703430449 -782226198 1551117822 998612523
            1463244287 -1487306817 18030462 -718065881</internalNodes>
          <leafValues>
            -2.8503987193107605e-01 5.1236069202423096e-01</leafValues></_>
        <_>
          <internalNodes>
            0 -1 132 -990190330 896546180 1359029428 1031229494
            1103691972 1142953987 -1514483574 539166722</internalNodes>
          <leafValues>
            -4.8465147614479065e-01 2.7640044689178467e-01</leafValues></_>
        <_>
          <internalNodes>
            0 -1 75 -2144679218 999850206 -845889384 755730472 268454024
            1619073197 52496472 -2104644675</internalNodes>
          <leafValues>
            -3.8957658410072327e-01 3.4865388274192810e-01</leafValues></_></weakClassifiers></_>
    <!-- stage 6 -->
    <_>
      <maxWeakCount>15</maxWeakCount>
      <stageThreshold>-1.8496313095092773e+00</stageThreshold>
      <weakClassifiers>
        <_>
          <internalNodes>
            0 -1 180 -1844276224 327204879 1426080295 486764867 16810888
            671088642 553717896 490220042</internalNodes>
          <leafValues>
            -6.5160548686981201e-01 5.5447198450565338e-02</leafValues></_>
        <_>
          <internalNodes>
            0 -1 13 34550187 1001124742 320503814 929297694 1942991235
            402735241 -112953558 -8427555</internalNodes>
          <leafValues>
            -4.5755392313003540e-01 3.0716297030448914e-01</leafValues></_>
        <_>
          <internalNodes>
            0 -1 158 -4198731 1610612727 -16793611 -4233 -1407604
            2013134844 -18706678 -1426342081</internalNodes>
          <leafValues>
            -3.0960202217102051e-01 4.5805570483207703e-01</leafValues></_>
        <_>
          <internalNodes>
            0 -1 81 -670397440 -670023670 143139205 808460290 -402636712
            134289416 45089164 50331651</internalNodes>
          <leafValues>
            -4.3956923484802246e-01 3.1641882658004761e-01</leafValues></_>
        <_>
          <internalNodes>
            0 -1 3 -229834770 -671352097 -80217625 -684208357 -528893009
            -604536815 -476603493 1469904763</internalNodes>
          <leafValues>
            -6.2693428993225098e-01 2.9550623893737793e-01</leafValues></_>
        <_>
          <internalNodes>
            0 -1 143 -103942728 1347863872 2132869456 85623364 4604054
            942817339 1546521930 -6727689</internalNodes>
          <leafValues>
            -3.5987839102745056e-01 3.7209537625312805e-01</leafValues></_>
        <_>
          <internalNodes>
            0 -1 59 -170074116 -41775104 -310405700 -41962812 -939392818
            1939996803 1069288333 79670221</internalNodes>
          <leafValues>
            -4.1223335266113281e-01 3.0905380845069885e-01</leafValues></_>
        <_>
          <internalNodes>
            0 -1 195 88440834 1401634857 268503427 1367941446 306446410
            889651237 717750794 -1222411553</internalNodes>
          <leafValues>
            -4.0831494331359863e-01 3.3171328902244568e-01</leafValues></_>
        <_>
          <internalNodes>
            0 -1 165 -1073217358 -745055743 1228151669 1568109519
            605192890 292974515 101911948 -874950675</internalNodes>
          <leafValues>
            -3.0902063846588135e-01 4.4172486662864685e-01</leafValues></_>
        <_>
          <internalNodes>
            0 -1 153 2147483405 -5341313 -573662 -613056714 -596259188
            -153092225 -355087350 -1594888306</internalNodes>
          <leafValues>
            -3.1035482883453369e-01 4.1044390201568604e-01</leafValues></_>
        <_>
          <internalNodes>
            0 -1 92 2110451198 -1818172510 1647782046 1864597634
            2014027698 -213876671 -257316725 1194282147</internalNodes>
          <leafValues>
            -4.3089151382446289e-01 3.1043094396591187e-01</leafValues></_>
        <_>
          <internalNodes>
            0 -1 51 1358823479 1434335103 816719023 1903048733
            -1317108482 964655039 762761727 -1153706241</internalNodes>
          <leafValues>
            -3.0101102590560913e-01 4.4037607312202454e-01</leafValues></_>
        <_>
          <internalNodes>
            0 -1 117 -992451968 -126343753 1324298060 -743134594
            -356762009 488529790 339683820 -1305327770</internalNodes>
          <leafValues>
            -3.2025492191314697e-01 3.8729238510131836e-01</leafValues></_>
        <_>
          <internalNodes>
            0 -1 147 -71827468 -209450594 285700434 -771071500
            -1571165244 1578173056 -510762110 559016759</internalNodes>
          <leafValues>
            -4.5777538418769836e-01 2.8003445267677307e-01</leafValues></_>
        <_>
          <internalNodes>
            0 -1 137 1123088676 899330513 -249523333 310518283
            -828063636 947925419 -374292118 594923951</internalNodes>
          <leafValues>
            -5.6708467006683350e-01 2.3831441998481750e-01</leafValues></_></weakClassifiers></_>
    <!-- stage 7 -->
    <_>
      <maxWeakCount>13</maxWeakCount>
      <stageThreshold>-1.5647042989730835e+00</stageThreshold>
      <weakClassifiers>
        <_>
          <internalNodes>
            0 -1 2 319762571 866095491 1277962 1928812889 2048623371
            286457857 1807845711 -703512</internalNodes>
          <leafValues>
            -7.1061378717422485e-01 3.9747487753629684e-03</leafValues></_>
        <_>
          <internalNodes>
            0 -1 142 -187382922 432848916 -251390182 1565541920
            1076494416 268961024 -258134052 -1220947233</internalNodes>
          <leafValues>
            -3.9841398596763611e-01 3.7894049286842346e-01</leafValues></_>
        <_>
          <internalNodes>
            0 -1 55 -167722968 -1874231264 596641036 285802505
            1619030066 1094754976 100616 100745232</internalNodes>
          <leafValues>
            -4.2276844382286072e-01 3.2423394918441772e-01</leafValues></_>
        <_>
          <internalNodes>
            0 -1 4 -154348066 -615232809 -770288938 2109196703
            -606343725 -1187216142 -1289623477 -201339987</internalNodes>
          <leafValues>
            -8.0813866853713989e-01 1.7494593560695648e-01</leafValues></_>
        <_>
          <internalNodes>
            0 -1 190 293012423 1610304503 1073684350 1576353727
            656547850 1937645558 100607674 -603987289</internalNodes>
          <leafValues>
            -3.7629476189613342e-01 3.9772385358810425e-01</leafValues></_>
        <_>
          <internalNodes>
            0 -1 116 -117527090 -1308884651 -1249864836 -1283452740
            1250491064 -103235448 -259367990 346900537</internalNodes>
          <leafValues>
            -4.8247581720352173e-01 2.8978580236434937e-01</leafValues></_>
        <_>
          <internalNodes>
            0 -1 111 1611006083 1356808601 135334135 373703197 394330837
            1141375140 1088674461 1106690252</internalNodes>
          <leafValues>
            -4.5532125234603882e-01 3.2634389400482178e-01</leafValues></_>
        <_>
          <internalNodes>
            0 -1 177 -1859939582 -13510789 2069318417 322381827
            1443922312 -213354738 735390857 -1840553458</internalNodes>
          <leafValues>
            -2.7155494689941406e-01 5.0173783302307129e-01</leafValues></_>
        <_>
          <internalNodes>
            0 -1 128 -14680068 1500220223 -587173036 -1038482929
            -1253344288 1913356329 -486280248 840629230</internalNodes>
          <leafValues>
            -6.8559467792510986e-01 1.8668586015701294e-01</leafValues></_>
        <_>
          <internalNodes>
            0 -1 184 293775698 1431896067 838930451 285749332 285379016
            1342185474 269147866 2239243</internalNodes>
          <leafValues>
            -4.1832983493804932e-01 3.5874393582344055e-01</leafValues></_>
        <_>
          <internalNodes>
            0 -1 63 -764669375 -603396384 -1388503376 386413731
            -1581173522 1885668687 -1906491554 -2091774961</internalNodes>
          <leafValues>
            -3.1003683805465698e-01 4.4029304385185242e-01</leafValues></_>
        <_>
          <internalNodes>
            0 -1 120 -1037401912 1209532680 180294 1393349152 25174690
            1115898184 9081480 -812955640</internalNodes>
          <leafValues>
            -3.4256827831268311e-01 3.6530175805091858e-01</leafValues></_>
        <_>
          <internalNodes>
            0 -1 161 -1367208432 419037227 -805150511 1788265226
            -763215060 -1182777214 -375715656 -458951692</internalNodes>
          <leafValues>
            -5.8675092458724976e-01 2.1056658029556274e-01</leafValues></_></weakClassifiers></_>
    <!-- stage 8 -->
    <_>
      <maxWeakCount>12</maxWeakCount>
      <stageThreshold>-1.6562690734863281e+00</stageThreshold>
      <weakClassifiers>
        <_>
          <internalNodes>
            0 -1 30 -268390156 -703393449 -1726439497 -15776899
            -502234891 1059066136 -1255425089 2004304235</internalNodes>
          <leafValues>
            -5.7221883535385132e-01 2.3400525748729706e-01</leafValues></_>
        <_>
          <internalNodes>
            0 -1 90 -713883650 931140356 153883312 1292733582 -300174629
            2078513561 -161121537 1334792430</internalNodes>
          <leafValues>
            -5.1464760303497314e-01 2.5530305504798889e-01</leafValues></_>
        <_>
          <internalNodes>
            0 -1 167 -623466976 500498517 17110527 307333671 -91160304
            1935081601 1782786570 -1440728494</internalNodes>
          <leafValues>
            -4.8503190279006958e-01 2.9922851920127869e-01</leafValues></_>
        <_>
          <internalNodes>
            0 -1 112 2011135744 2080368639 -595412481 -338825025
            387956191 1519026255 -76563521 1331391487</internalNodes>
          <leafValues>
            -7.7627074718475342e-01 1.7252165079116821e-01</leafValues></_>
        <_>
          <internalNodes>
            0 -1 20 1394282666 1896349898 172623931 1362996803
            -1992193890 813125015 645249883 -1221227912</internalNodes>
          <leafValues>
            -3.1635811924934387e-01 4.3797442317008972e-01</leafValues></_>
        <_>
          <internalNodes>
            0 -1 198 -239025536 1526845471 1607704 53690371 -1862218822
            151027713 27361675 16976154</internalNodes>
          <leafValues>
            -4.1420704126358032e-01 3.4859991073608398e-01</leafValues></_>
        <_>
          <internalNodes>
            0 -1 67 -241440624 1389816922 48764856 1999602410 808304041
            513951692 -1126732612 -340826689</internalNodes>
          <leafValues>
            -2.7996709942817688e-01 4.5706167817115784e-01</leafValues></_>
        <_>
          <internalNodes>
            0 -1 191 63111309 1481347146 537070730 -1693515511 744759825
            1376323627 587343494 -1879117113</internalNodes>
          <leafValues>
            -4.2199906706809998e-01 3.1201350688934326e-01</leafValues></_>
        <_>
          <internalNodes>
            0 -1 71 1342802058 1502609857 268482944 1427440137 411147663
            1476624650 21635242 1090715675</internalNodes>
          <leafValues>
            -3.8129168748855591e-01 3.1500974297523499e-01</leafValues></_>
        <_>
          <internalNodes>
            0 -1 64 -1052444694 25739361 -1543486084 833356004
            2032205887 1924137018 -1321476998 1998002311</internalNodes>
          <leafValues>
            -6.3507741689682007e-01 1.8314073979854584e-01</leafValues></_>
        <_>
          <internalNodes>
            0 -1 125 -670440228 1432430088 119937594 -583978607 41617290
            -1539889372 48567946 -1156902383</internalNodes>
          <leafValues>
            -2.6500216126441956e-01 4.8609307408332825e-01</leafValues></_>
        <_>
          <internalNodes>
            0 -1 119 -251276652 1930795184 71566692 491782154 -922075872
            461963426 -542529752 800931783</internalNodes>
          <leafValues>
            -4.9459302425384521e-01 2.5952345132827759e-01</leafValues></_></weakClassifiers></_>
    <!-- stage 9 -->
    <_>
      <maxWeakCount>15</maxWeakCount>
      <stageThreshold>-1.8317598104476929e+00</stageThreshold>
      <weakClassifiers>
        <_>
          <internalNodes>
            0 -1 18 33751983 84646115 303407171 2038653091 1436268489
            18481155 1636820938 -9491729</internalNodes>
          <leafValues>
            -6.9416165351867676e-01 3.7968318909406662e-02</leafValues></_>
        <_>
          <internalNodes>
            0 -1 74 -1146307596 -1185371409 1933374334 -1347942296
            2052039643 -73817973 -1366746625 391454780</internalNodes>
          <leafValues>
            -4.6107536554336548e-01 2.6427978277206421e-01</leafValues></_>
        <_>
          <internalNodes>
            0 -1 25 -715668002 -48570329 1602674044 -2206953 -503077057
            -1013940221 706231095 1068452811</internalNodes>
          <leafValues>
            -4.8700863122940063e-01 2.7417281270027161e-01</leafValues></_>
        <_>
          <internalNodes>
            0 -1 199 84083491 1540116611 21496010 1095078659 1149380742
            604569737 1208705551 -338822258</internalNodes>
          <leafValues>
            -3.8824909925460815e-01 3.4711661934852600e-01</leafValues></_>
        <_>
          <internalNodes>
            0 -1 171 -671898736 409612130 1056179474 601929547
            -1074340956 859770696 1600290952 -1949628854</internalNodes>
          <leafValues>
            -2.8679615259170532e-01 4.4048425555229187e-01</leafValues></_>
        <_>
          <internalNodes>
            0 -1 1 -102723240 1430605856 335544388 826360143 174103176
            553648256 -1037958258 58024451</internalNodes>
          <leafValues>
            -3.6301606893539429e-01 3.3748000860214233e-01</leafValues></_>
        <_>
          <internalNodes>
            0 -1 70 -603847930 1568023600 656540201 962422819 335908065
            1416642822 471174667 -1570302182</internalNodes>
          <leafValues>
            -3.1911605596542358e-01 3.9135310053825378e-01</leafValues></_>
        <_>
          <internalNodes>
            0 -1 57 -720821072 -804771418 196479179 1001498646
            -161165169 2099603326 -2072312771 -1303964019</internalNodes>
          <leafValues>
            -2.7349522709846497e-01 4.4498246908187866e-01</leafValues></_>
        <_>
          <internalNodes>
            0 -1 7 -16320534 -547891361 -1090407106 -566131248
            -1363542017 -350748269 -1476350421 1803148171</internalNodes>
          <leafValues>
            -7.7166217565536499e-01 1.7393116652965546e-01</leafValues></_>
        <_>
          <internalNodes>
            0 -1 164 -746717432 1919418298 710924218 649571888
            -1804361040 -11313321 2138210234 -79857698</internalNodes>
          <leafValues>
            -3.1694111227989197e-01 4.2889261245727539e-01</leafValues></_>
        <_>
          <internalNodes>
            0 -1 196 1421197768 -639800053 560275411 829103421
            1127875546 1467950973 622234522 -1209018369</internalNodes>
          <leafValues>
            -2.2439569234848022e-01 5.2253168821334839e-01</leafValues></_>
        <_>
          <internalNodes>
            0 -1 28 1276682312 1420296203 1342181390 830537857
            -1990718840 1897126018 722322095 1393623065</internalNodes>
          <leafValues>
            -4.1256633400917053e-01 3.0338203907012939e-01</leafValues></_>
        <_>
          <internalNodes>
            0 -1 82 -221409529 -113628534 712020075 917506111
            -1857098641 491474801 -2039271864 -1222298756</internalNodes>
          <leafValues>
            -2.8325915336608887e-01 4.5549598336219788e-01</leafValues></_>
        <_>
          <internalNodes>
            0 -1 122 2018951856 1276540070 287240702 1905377860
            1628442096 1343228417 -365514824 152117841</internalNodes>
          <leafValues>
            -4.8578765988349915e-01 2.5322592258453369e-01</leafValues></_>
        <_>
          <internalNodes>
            0 -1 151 -1469579008 -1595964205 -1734835968 -86551985
            -1733778687 -787922934 1943900328 -1903980</internalNodes>
          <leafValues>
            -5.0753223896026611e-01 2.7504906058311462e-01</leafValues></_></weakClassifiers></_>
    <!-- stage 10 -->
    <_>
      <maxWeakCount>15</maxWeakCount>
      <stageThreshold>-1.8723638057708740e+00</stageThreshold>
      <weakClassifiers>
        <_>
          <internalNodes>
            0 -1 200 60229815 -800210865 4259848 1083408579 -1316642165
            1879113731 302235787 -604264497</internalNodes>
          <leafValues>
            -7.0639789104461670e-01 8.0454330891370773e-03</leafValues></_>
        <_>
          <internalNodes>
            0 -1 16 -800030508 1469147355 1342181672 1363231555
            -1609514033 302236160 402688142 1392706251</internalNodes>
          <leafValues>
            -3.8413754105567932e-01 3.6647927761077881e-01</leafValues></_>
        <_>
          <internalNodes>
            0 -1 93 -587800590 1039445798 -65861 -277959004 -637575193
            1862139901 1542878974 -161925084</internalNodes>
          <leafValues>
            -3.2545781135559082e-01 3.8052812218666077e-01</leafValues></_>
        <_>
          <internalNodes>
            0 -1 201 1347605976 1478263307 268763460 353390725
            1224771817 1476952704 318816459 1048666</internalNodes>
          <leafValues>
            -4.4812524318695068e-01 2.7649301290512085e-01</leafValues></_>
        <_>
          <internalNodes>
            0 -1 79 -8519728 -545257259 1269796829 1728249946 -508871751
            1764819177 -299626664 -633594886</internalNodes>
          <leafValues>
            -6.2480413913726807e-01 2.1750280261039734e-01</leafValues></_>
        <_>
          <internalNodes>
            0 -1 127 -869220346 1074790423 286282675 345621339
            -670678512 1242185730 -482258365 -1736136157</internalNodes>
          <leafValues>
            -3.5452362895011902e-01 3.6842241883277893e-01</leafValues></_>
        <_>
          <internalNodes>
            0 -1 43 1349171311 1442971746 1140539391 1886858680
            1862082047 -1889568971 410561021 -201378180</internalNodes>
          <leafValues>
            -3.0432295799255371e-01 4.1306903958320618e-01</leafValues></_>
        <_>
          <internalNodes>
            0 -1 192 1178784516 1368391696 4214848 -2097069854
            -2130542456 545259520 -1684954647 295708699</internalNodes>
          <leafValues>
            -3.8253575563430786e-01 3.4574064612388611e-01</leafValues></_>
        <_>
          <internalNodes>
            0 -1 29 1149293020 1947750750 861198655 -106151600
            -2013262552 1619280032 1610664383 391336204</internalNodes>
          <leafValues>
            -3.4759756922721863e-01 3.6534780263900757e-01</leafValues></_>
        <_>
          <internalNodes>
            0 -1 100 -264077158 -231630271 126691376 1159695913
            -1301738054 39169184 74783406 -675605589</internalNodes>
          <leafValues>
            -2.7001121640205383e-01 4.9280932545661926e-01</leafValues></_>
        <_>
          <internalNodes>
            0 -1 36 444078 -746599813 -1520969719 -1814854847 -778100513
            1661599746 -524025077 207413963</internalNodes>
          <leafValues>
            -7.7374905347824097e-01 1.7939034104347229e-01</leafValues></_>
        <_>
          <internalNodes>
            0 -1 49 -754972164 201855301 -1895297794 294998238
            -1014033775 1083441170 -1164441336 -340998747</internalNodes>
          <leafValues>
            -4.2917856574058533e-01 3.0015960335731506e-01</leafValues></_>
        <_>
          <internalNodes>
            0 -1 170 -210610219 2147053502 -1392636099 1065351281
            1996948116 -1349706001 -1619063270 -1166076421</internalNodes>
          <leafValues>
            -2.9104360938072205e-01 4.5073157548904419e-01</leafValues></_>
        <_>
          <internalNodes>
            0 -1 131 1081761802 1712848946 1528275155 -1858054884
            1091572064 135397897 -1584848214 -1550712538</internalNodes>
          <leafValues>
            -4.1645523905754089e-01 3.0561080574989319e-01</leafValues></_>
        <_>
          <internalNodes>
            0 -1 156 -1811654184 -191164142 1140852492 276889676 4740
            590348320 151009355 973087423</internalNodes>
          <leafValues>
            -4.1771525144577026e-01 2.9933977127075195e-01</leafValues></_></weakClassifiers></_>
    <!-- stage 11 -->
    <_>
      <maxWeakCount>19</maxWeakCount>
      <stageThreshold>-2.0008628368377686e+00</stageThreshold>
      <weakClassifiers>
        <_>
          <internalNodes>
            0 -1 109 -602879768 -237957032 286064785 1359675668
            134777016 -2144337782 83987370 -1291116353</internalNodes>
          <leafValues>
            -5.5261105298995972e-01 1.4947368204593658e-01</leafValues></_>
        <_>
          <internalNodes>
            0 -1 140 -115363383 -620048368 1325995991 -713031392
            945549292 965902895 -268764542 603695863</internalNodes>
          <leafValues>
            -3.7732264399528503e-01 2.8003019094467163e-01</leafValues></_>
        <_>
          <internalNodes>
            0 -1 10 286466733 991613204 319869186 -673328869 2077728911
            2064089090 1359757581 -77106227</internalNodes>
          <leafValues>
            -3.4704801440238953e-01 3.1986403465270996e-01</leafValues></_>
        <_>
          <internalNodes>
            0 -1 185 -785329904 -1823407934 272629760 51384582
            -2097114484 1610631306 35686026 18549322</internalNodes>
          <leafValues>
            -3.4284803271293640e-01 3.1668180227279663e-01</leafValues></_>
        <_>
          <internalNodes>
            0 -1 169 -282161920 -1082782417 -269566171 40906542
            -730476900 838753630 -459886116 -1298129266</internalNodes>
          <leafValues>
            -2.7628675103187561e-01 4.0983462333679199e-01</leafValues></_>
        <_>
          <internalNodes>
            0 -1 157 -214193580 -137654049 -1849523969 -498382970
            -626800627 1036525704 847153674 -1359237329</internalNodes>
          <leafValues>
            -3.7411800026893616e-01 3.0121952295303345e-01</leafValues></_>
        <_>
          <internalNodes>
            0 -1 34 71831802 282207444 -1006565249 323926024 1342803162
            76228016 2173512 1060086379</internalNodes>
          <leafValues>
            -4.0188962221145630e-01 2.8263100981712341e-01</leafValues></_>
        <_>
          <internalNodes>
            0 -1 166 -1072979406 1507016983 377619291 289735695
            321758185 302710785 1411687103 -1835552397</internalNodes>
          <leafValues>
            -3.2938683032989502e-01 3.2807144522666931e-01</leafValues></_>
        <_>
          <internalNodes>
            0 -1 14 -551551490 -639338925 -401285148 -100603697
            -1023293575 -2147368960 1918159188 1881661669</internalNodes>
          <leafValues>
            -7.9380041360855103e-01 1.5195615589618683e-01</leafValues></_>
        <_>
          <internalNodes>
            0 -1 89 -765441951 -9157754 1014898724 2146608700 -565293027
            -1791787547 121329006 -1759505346</internalNodes>
          <leafValues>
            -2.9400384426116943e-01 4.1592776775360107e-01</leafValues></_>
        <_>
          <internalNodes>
            0 -1 65 -254287170 1484438672 537395518 -1150475226
            2089150642 65044480 -1471414078 131407931</internalNodes>
          <leafValues>
            -3.4151709079742432e-01 3.2467496395111084e-01</leafValues></_>
        <_>
          <internalNodes>
            0 -1 146 -1037975232 -783862188 61223059 1367553645
            -2036095602 1581133535 124158347 -1051912617</internalNodes>
          <leafValues>
            -2.8492948412895203e-01 4.0689834952354431e-01</leafValues></_>
        <_>
          <internalNodes>
            0 -1 202 2014900583 860963073 -1862104434 659116373
            1124073962 1526865952 1378963995 5575259</internalNodes>
          <leafValues>
            -5.5870765447616577e-01 2.2269710898399353e-01</leafValues></_>
        <_>
          <internalNodes>
            0 -1 118 366926238 292623330 1639027194 -813881202
            1611516092 2093514760 1120494040 1074749463</internalNodes>
          <leafValues>
            -3.9582040905952454e-01 2.8390702605247498e-01</leafValues></_>
        <_>
          <internalNodes>
            0 -1 175 55247121 1523013718 -1341384577 264667662 554171335
            675354635 256610285 -1981494292</internalNodes>
          <leafValues>
            -4.7963500022888184e-01 2.3491695523262024e-01</leafValues></_>
        <_>
          <internalNodes>
            0 -1 123 -623786548 1947222390 353433012 822084368
            1216536766 280109079 -385258838 -1975952717</internalNodes>
          <leafValues>
            -3.5008534789085388e-01 3.4166532754898071e-01</leafValues></_>
        <_>
          <internalNodes>
            0 -1 17 1432373372 1493254149 -2013264574 352338178
            268808376 1486884996 379629832 286345867</internalNodes>
          <leafValues>
            -4.9099221825599670e-01 2.3494473099708557e-01</leafValues></_>
        <_>
          <internalNodes>
            0 -1 32 -897412874 139335124 -2138733046 1317996892
            411097816 1938837650 -1702082024 -1147422008</internalNodes>
          <leafValues>
            -3.8045063614845276e-01 3.0262118577957153e-01</leafValues></_>
        <_>
          <internalNodes>
            0 -1 106 -2033573824 1661292608 -2130706324 1938952296
            1174405156 269025288 -1583341504 -1827446512</internalNodes>
          <leafValues>
            -4.1595003008842468e-01 2.8401085734367371e-01</leafValues></_></weakClassifiers></_>
    <!-- stage 12 -->
    <_>
      <maxWeakCount>17</maxWeakCount>
      <stageThreshold>-1.7155399322509766e+00</stageThreshold>
      <weakClassifiers>
        <_>
          <internalNodes>
            0 -1 155 2040526837 1912467473 956406062 -788135668
            134223017 705249293 -1207199558 -1085287573</internalNodes>
          <leafValues>
            -5.4556500911712646e-01 1.8223027884960175e-01</leafValues></_>
        <_>
          <internalNodes>
            0 -1 139 -1427965508 -723775073 1495449756 44051970
            260426120 1502216200 159678848 1264935</internalNodes>
          <leafValues>
            -6.2217950820922852e-01 1.4921806752681732e-01</leafValues></_>
        <_>
          <internalNodes>
            0 -1 163 43393058 829423696 16977936 412811281 -494701815
            554172426 -276120806 -1465226261</internalNodes>
          <leafValues>
            -3.4361383318901062e-01 3.4422186017036438e-01</leafValues></_>
        <_>
          <internalNodes>
            0 -1 193 1392706049 -1318367218 587401563 1342652937
            25362954 1094717472 593101482 -544512117</internalNodes>
          <leafValues>
            -3.5658368468284607e-01 3.5597464442253113e-01</leafValues></_>
        <_>
          <internalNodes>
            0 -1 108 -488443432 1409292960 371729878 1438223234
            2036183210 497891248 84873408 -79857561</internalNodes>
          <leafValues>
            -3.3605778217315674e-01 3.6638197302818298e-01</leafValues></_>
        <_>
          <internalNodes>
            0 -1 56 -251604497 -234749950 -552210564 -1155078123
            1157726643 -268402688 -585339394 1427104463</internalNodes>
          <leafValues>
            -3.4618607163429260e-01 3.2549664378166199e-01</leafValues></_>
        <_>
          <internalNodes>
            0 -1 81 -264216528 281018432 134745767 -1316896767
            -117329854 -1744371708 822741456 50340235</internalNodes>
          <leafValues>
            -3.8352349400520325e-01 3.4543690085411072e-01</leafValues></_>
        <_>
          <internalNodes>
            0 -1 22 -683440501 -721318302 1815131577 1094399219
            538025941 1042093682 816042315 -148118037</internalNodes>
          <leafValues>
            -1.8466664850711823e-01 6.0569548606872559e-01</leafValues></_>
        <_>
          <internalNodes>
            0 -1 6 615271946 1150376145 1359025777 366211088 211460638
            1241518098 951632027 402901146</internalNodes>
          <leafValues>
            -7.7025467157363892e-01 1.4455085992813110e-01</leafValues></_>
        <_>
          <internalNodes>
            0 -1 113 -1582631688 -715428553 645409977 862031423
            -2040050511 -1755349214 494273450 97726376</internalNodes>
          <leafValues>
            -2.8139072656631470e-01 4.3573158979415894e-01</leafValues></_>
        <_>
          <internalNodes>
            0 -1 94 -1073173694 -54114592 -1880185860 -214500332
            142001780 6780380 2012617948 -1240657866</internalNodes>
          <leafValues>
            -2.9045790433883667e-01 4.1523078083992004e-01</leafValues></_>
        <_>
          <internalNodes>
            0 -1 176 289800530 2067927949 1107296920 353374754 421727481
            437602699 1797237311 -1147741381</internalNodes>
          <leafValues>
            -3.3534616231918335e-01 3.2472336292266846e-01</leafValues></_>
        <_>
          <internalNodes>
            0 -1 130 396808636 -711700105 -107425286 1531815458
            281426867 1118344 831103083 637747266</internalNodes>
          <leafValues>
            -4.7100803256034851e-01 2.5201782584190369e-01</leafValues></_>
        <_>
          <internalNodes>
            0 -1 126 1610860587 1450607908 1404651122 1071994779
            421962448 1719115158 208528294 -232267801</internalNodes>
          <leafValues>
            -2.8163740038871765e-01 4.1768723726272583e-01</leafValues></_>
        <_>
          <internalNodes>
            0 -1 148 -589900324 -733196151 1102170 -2046558078
            1074141394 8946258 902726074 993339743</internalNodes>
          <leafValues>
            -3.3217948675155640e-01 3.4533631801605225e-01</leafValues></_>
        <_>
          <internalNodes>
            0 -1 35 1371687510 1904808016 1073811505 18350148 1241532577
            402817152 849874987 121438251</internalNodes>
          <leafValues>
            -5.2430927753448486e-01 2.1414208412170410e-01</leafValues></_>
        <_>
          <internalNodes>
            0 -1 107 -1094039518 -800925402 536903824 -1047526516
            -2113261112 285212672 612507704 -2091444184</internalNodes>
          <leafValues>
            -4.3716022372245789e-01 2.8438749909400940e-01</leafValues></_></weakClassifiers></_>
    <!-- stage 13 -->
    <_>
      <maxWeakCount>17</maxWeakCount>
      <stageThreshold>-1.8196684122085571e+00</stageThreshold>
      <weakClassifiers>
        <_>
          <internalNodes>
            0 -1 136 420050393 -782696315 83886173 -1626406885 430671024
            -1151139813 16898763 -1148466789</internalNodes>
          <leafValues>
            -5.0362026691436768e-01 4.2492491006851196e-01</leafValues></_>
        <_>
          <internalNodes>
            0 -1 38 1392716506 419135419 788414463 -369103045 1610162133
            1073692669 2067644414 -746733829</internalNodes>
          <leafValues>
            -3.1943294405937195e-01 3.9952731132507324e-01</leafValues></_>
        <_>
          <internalNodes>
            0 -1 84 -251407908 -788480000 -654240436 -2012508074
            -2013033670 -1877868542 1252061056 1865255078</internalNodes>
          <leafValues>
            -6.6899323463439941e-01 1.6585591435432434e-01</leafValues></_>
        <_>
          <internalNodes>
            0 -1 83 -568323062 2034268938 990679589 490057378 897568166
            1463261041 70522206 -1323100653</internalNodes>
          <leafValues>
            -2.4113696813583374e-01 4.9507009983062744e-01</leafValues></_>
        <_>
          <internalNodes>
            0 -1 160 -1061018624 -1042874303 293634074 314622080
            -2012733440 1628045312 -2105532276 -487571320</internalNodes>
          <leafValues>
            -4.6549743413925171e-01 2.8270301222801208e-01</leafValues></_>
        <_>
          <internalNodes>
            0 -1 31 -385979394 -44388430 46017276 1237469752 -1577635959
            -1829802538 1424403726 -1141426739</internalNodes>
          <leafValues>
            -3.2552608847618103e-01 3.9815002679824829e-01</leafValues></_>
        <_>
          <internalNodes>
            0 -1 69 76055234 469762265 -2075653864 -1249395572
            -1610504056 349931651 -1962334036 1062417355</internalNodes>
          <leafValues>
            -3.3707082271575928e-01 3.8180446624755859e-01</leafValues></_>
        <_>
          <internalNodes>
            0 -1 181 2001309785 -138439248 913710639 1493242625
            -735732856 -1383213258 1077251976 -1693772918</internalNodes>
          <leafValues>
            -2.1049320697784424e-01 6.3222026824951172e-01</leafValues></_>
        <_>
          <internalNodes>
            0 -1 24 -143083297 -237205038 296425489 -116063493
            -1690954609 -1169324296 1767969003 -216424521</internalNodes>
          <leafValues>
            -1.7395034432411194e-01 6.8658363819122314e-01</leafValues></_>
        <_>
          <internalNodes>
            0 -1 189 -686044798 -686442043 -475908830 -951233477
            -1837651032 1094571885 -1625580885 -1818493114</internalNodes>
          <leafValues>
            -1.6271707415580750e-01 6.7675548791885376e-01</leafValues></_>
        <_>
          <internalNodes>
            0 -1 152 -249638080 1385218127 51478742 -2029166590
            -1600405124 302121108 -1165392104 671845938</internalNodes>
          <leafValues>
            -4.8531869053840637e-01 2.5337636470794678e-01</leafValues></_>
        <_>
          <internalNodes>
            0 -1 60 -603664141 1555933368 11359834 -612007612 880314042
            -934418830 1238638008 -1145180325</internalNodes>
          <leafValues>
            -2.4607186019420624e-01 5.3862649202346802e-01</leafValues></_>
        <_>
          <internalNodes>
            0 -1 47 -210075608 -149777734 763357939 865939349 455288895
            -2107945128 291344218 -1336680394</internalNodes>
          <leafValues>
            -2.5746038556098938e-01 4.9629488587379456e-01</leafValues></_>
        <_>
          <internalNodes>
            0 -1 40 -214896390 1565818881 -1065287552 1364262916
            1140869257 -2147483648 524811 18946571</internalNodes>
          <leafValues>
            -4.0479263663291931e-01 3.3313679695129395e-01</leafValues></_>
        <_>
          <internalNodes>
            0 -1 172 -604275214 1983197033 1788779086 19565892
            -1904869744 -1428148722 691707562 -155159353</internalNodes>
          <leafValues>
            -3.1569197773933411e-01 4.2321315407752991e-01</leafValues></_>
        <_>
          <internalNodes>
            0 -1 135 1002362781 -374621393 266940774 61548082 6325255
            2028963125 1264097882 -1351836719</internalNodes>
          <leafValues>
            -2.9287612438201904e-01 4.3170768022537231e-01</leafValues></_>
        <_>
          <internalNodes>
            0 -1 138 -458192893 -2092368212 1047852709 -2005449866
            -688007860 -1619165187 -831064154 -2135354041</internalNodes>
          <leafValues>
            -3.4618145227432251e-01 3.7353271245956421e-01</leafValues></_></weakClassifiers></_>
    <!-- stage 14 -->
    <_>
      <maxWeakCount>15</maxWeakCount>
      <stageThreshold>-1.8354660272598267e+00</stageThreshold>
      <weakClassifiers>
        <_>
          <internalNodes>
            0 -1 37 -1826056967 -583868837 1359919321 -1655889881
            -1881830920 -1236970516 -1792374551 -112454516</internalNodes>
          <leafValues>
            -4.6619129180908203e-01 9.1768294572830200e-01</leafValues></_>
        <_>
          <internalNodes>
            0 -1 182 551753563 2147270647 2130132991 2147433340
            -676025161 -32779 -672225720 -1105742129</internalNodes>
          <leafValues>
            -3.6291307210922241e-01 4.2642599344253540e-01</leafValues></_>
        <_>
          <internalNodes>
            0 -1 129 1090646303 1358970880 1375732036 -905838589
            -1727926852 -1979580413 -880778272 579570181</internalNodes>
          <leafValues>
            -5.2699196338653564e-01 3.1276893615722656e-01</leafValues></_>
        <_>
          <internalNodes>
            0 -1 179 -1687594769 498159476 287664899 -2126527184
            117523596 1001682836 403505579 -1154869942</internalNodes>
          <leafValues>
            -2.8544387221336365e-01 5.3913384675979614e-01</leafValues></_>
        <_>
          <internalNodes>
            0 -1 72 -795823023 -182583263 -1984559564 -1624964559
            -1699429219 -249207177 -1977222998 -384350716</internalNodes>
          <leafValues>
            -1.7404595017433167e-01 8.1112128496170044e-01</leafValues></_>
        <_>
          <internalNodes>
            0 -1 97 -218963040 1856929376 780130940 170322464 377422896
            645149732 -1880751718 1337906605</internalNodes>
          <leafValues>
            -3.6763903498649597e-01 4.4392821192741394e-01</leafValues></_>
        <_>
          <internalNodes>
            0 -1 48 1610662250 -243269547 285213052 2107969560 270543544
            41943168 199066 -1623641949</internalNodes>
          <leafValues>
            -3.6457458138465881e-01 4.8743849992752075e-01</leafValues></_>
        <_>
          <internalNodes>
            0 -1 33 -1402400643 -730484736 573245512 1300299826
            -2073196293 -1918067338 -1389056822 -1911628315</internalNodes>
          <leafValues>
            -2.5163006782531738e-01 6.2327879667282104e-01</leafValues></_>
        <_>
          <internalNodes>
            0 -1 186 1196471976 1499004928 196646 495403023 -2113550205
            285474817 -2143247650 168231642</internalNodes>
          <leafValues>
            -3.8574737310409546e-01 4.3115580081939697e-01</leafValues></_>
        <_>
          <internalNodes>
            0 -1 28 1396944994 -161654741 1076258872 325544205
            -897692762 -1335931584 975477118 -2028777918</internalNodes>
          <leafValues>
            -3.1575441360473633e-01 5.5405324697494507e-01</leafValues></_>
        <_>
          <internalNodes>
            0 -1 95 -823857194 -622317724 -1628506120 -1020301974
            217906748 519007852 618490413 1768886943</internalNodes>
          <leafValues>
            -3.4761416912078857e-01 4.6601662039756775e-01</leafValues></_>
        <_>
          <internalNodes>
            0 -1 76 -109023038 314813067 -1314733887 -1052398921
            1486888137 347683559 -1196649188 -80110901</internalNodes>
          <leafValues>
            -2.6437518000602722e-01 6.1657595634460449e-01</leafValues></_>
        <_>
          <internalNodes>
            0 -1 144 -95031687 -736075098 2063225398 1258382354
            -1333882347 -1470942364 10618522 -1190424353</internalNodes>
          <leafValues>
            -2.2723667323589325e-01 7.1354305744171143e-01</leafValues></_>
        <_>
          <internalNodes>
            0 -1 85 1367922000 1342214144 16782356 -1795031024
            -2147426102 301989922 -870305372 705364586</internalNodes>
          <leafValues>
            -6.8489557504653931e-01 2.6621884107589722e-01</leafValues></_>
        <_>
          <internalNodes>
            0 -1 149 1360643513 1398890299 -480349441 -442470621
            -1927829885 -702055590 909610490 -681852947</internalNodes>
          <leafValues>
            -2.5174877047538757e-01 7.6654982566833496e-01</leafValues></_></weakClassifiers></_>
    <!-- stage 15 -->
    <_>
      <maxWeakCount>12</maxWeakCount>
      <stageThreshold>-1.6552846431732178e+00</stageThreshold>
      <weakClassifiers>
        <_>
          <internalNodes>
            0 -1 80 -206315453 -207027662 1651345007 1963074839
            241950906 -1001357961 -1036603510 -6060354</internalNodes>
          <leafValues>
            -5.0998735427856445e-01 9.5909088850021362e-01</leafValues></_>
        <_>
          <internalNodes>
            0 -1 68 1073748180 1092325376 1073758226 1159005185
            1073776778 276824064 2049 2039036562</internalNodes>
          <leafValues>
            -4.2841032147407532e-01 5.0574100017547607e-01</leafValues></_>
        <_>
          <internalNodes>
            0 -1 23 -637462886 -83296100 144573453 832833589 -2008703336
            -1775942108 -1470362214 -1316749186</internalNodes>
          <leafValues>
            -2.2696234285831451e-01 7.9948025941848755e-01</leafValues></_>
        <_>
          <internalNodes>
            0 -1 141 -1059435443 -1056931836 67174403 -1857519424
            33562632 130 -503250814 -880148480</internalNodes>
          <leafValues>
            -4.1844210028648376e-01 4.9178197979927063e-01</leafValues></_>
        <_>
          <internalNodes>
            0 -1 183 864093134 913987445 249458683 1438459829 119555594
            -570441732 1568221520 -272858150</internalNodes>
          <leafValues>
            -3.9964261651039124e-01 5.3157365322113037e-01</leafValues></_>
        <_>
          <internalNodes>
            0 -1 102 134783183 -720371643 16848961 823132288 134225931
            671088778 671776905 587726857</internalNodes>
          <leafValues>
            -4.6434783935546875e-01 5.3877222537994385e-01</leafValues></_>
        <_>
          <internalNodes>
            0 -1 52 1346688075 826395817 268054018 325298019 -2106128728
            1601181517 1275873439 -1869208876</internalNodes>
          <leafValues>
            -3.2331812381744385e-01 6.9504183530807495e-01</leafValues></_>
        <_>
          <internalNodes>
            0 -1 197 -674705266 -203305076 1052690655 1093820270 7346616
            1416933141 -908675960 -1849548134</internalNodes>
          <leafValues>
            -3.1604602932929993e-01 7.3062813282012939e-01</leafValues></_>
        <_>
          <internalNodes>
            0 -1 11 275139793 269297327 573343235 -1854066138 -629296608
            1110668637 167205436 32857647</internalNodes>
          <leafValues>
            -3.7512156367301941e-01 6.0071903467178345e-01</leafValues></_>
        <_>
          <internalNodes>
            0 -1 50 -617606871 -1845320136 -730566623 -1524364704
            -2130924136 -392077874 150366858 -213700929</internalNodes>
          <leafValues>
            -2.8732457756996155e-01 7.7035695314407349e-01</leafValues></_>
        <_>
          <internalNodes>
            0 -1 194 335941650 -1824375008 -1904063575 425818400
            -1802206560 -2093664425 -2022237303 180070374</internalNodes>
          <leafValues>
            -4.2045372724533081e-01 5.9084177017211914e-01</leafValues></_>
        <_>
          <internalNodes>
            0 -1 174 -668448436 -706069357 1158553173 1197680376
            1091584388 -1887914140 1614912815 -1417516629</internalNodes>
          <leafValues>
            -3.5371571779251099e-01 7.1738749742507935e-01</leafValues></_></weakClassifiers></_>
    <!-- stage 16 -->
    <_>
      <maxWeakCount>8</maxWeakCount>
      <stageThreshold>-2.2513890266418457e+00</stageThreshold>
      <weakClassifiers>
        <_>
          <internalNodes>
            0 -1 101 -1000312628 -788520928 646848617 -1859583966
            -1475312512 271601558 140788106 -1959559029</internalNodes>
          <leafValues>
            -6.2623220682144165e-01 9.3135935068130493e-01</leafValues></_>
        <_>
          <internalNodes>
            0 -1 196 565031130 282602760 -2128509052 1092623464
            1076889769 1177822590 1310984 -1853454950</internalNodes>
          <leafValues>
            -4.6106752753257751e-01 7.5892621278762817e-01</leafValues></_>
        <_>
          <internalNodes>
            0 -1 23 -637468008 973250732 139330569 1495271457
            -2008162672 -2080023004 139576586 -1861484420</internalNodes>
          <leafValues>
            -3.7432137131690979e-01 9.0833514928817749e-01</leafValues></_>
        <_>
          <internalNodes>
            0 -1 26 1346437312 811597857 339281188 1343226998 808715424
            -2053721808 1351704 356658441</internalNodes>
          <leafValues>
            -5.2460956573486328e-01 6.2788182497024536e-01</leafValues></_>
        <_>
          <internalNodes>
            0 -1 99 644229616 339616 216476696 321990321 653651759
            563502736 -1259270128 -918068201</internalNodes>
          <leafValues>
            -4.0994772315025330e-01 8.4051990509033203e-01</leafValues></_>
        <_>
          <internalNodes>
            0 -1 98 1111591232 33743408 1312440254 -603638687
            -1525324777 1081220837 -2016217826 -1930885879</internalNodes>
          <leafValues>
            -3.9076250791549683e-01 8.8461375236511230e-01</leafValues></_>
        <_>
          <internalNodes>
            0 -1 91 1512408512 -241037531 243185828 285355043
            -1791734500 -2040758467 4621670 -972931008</internalNodes>
          <leafValues>
            -3.3645772933959961e-01 8.9614427089691162e-01</leafValues></_>
        <_>
          <internalNodes>
            0 -1 19 -1073217469 -803207135 859350707 -1322442032
            -999766510 37557764 72384646 -2097116220</internalNodes>
          <leafValues>
            -3.7845799326896667e-01 8.1246769428253174e-01</leafValues></_></weakClassifiers></_>
    <!-- stage 17 -->
    <_>
      <maxWeakCount>4</maxWeakCount>
      <stageThreshold>-1.3242832422256470e+00</stageThreshold>
      <weakClassifiers>
        <_>
          <internalNodes>
            0 -1 178 -2147418064 16 16777216 1358954496 -1604320872
            41943040 -2147483520 8328</internalNodes>
          <leafValues>
            -8.3939814567565918e-01 1.</leafValues></_>
        <_>
          <internalNodes>
            0 -1 26 268435520 272629760 268435456 1342177284 -1879048064
            -2147450880 -2147483648 289540097</internalNodes>
          <leafValues>
            -7.7247256040573120e-01 9.1015934944152832e-01</leafValues></_>
        <_>
          <internalNodes>
            0 -1 78 1348620484 268435496 11936466 2097441 89424388
            70731379 34866236 1426325525</internalNodes>
          <leafValues>
            -6.6214483976364136e-01 1.</leafValues></_>
        <_>
          <internalNodes>
            0 -1 134 272630022 134217792 268435457 -2147446784
            -2147483647 0 536870922 34144418</internalNodes>
          <leafValues>
            -6.9623661041259766e-01 9.4973224401473999e-01</leafValues></_></weakClassifiers></_></stages>
  <features>
    <_>
      <rect>
        0 0 1 10</rect></_>
    <_>
      <rect>
        0 0 2 1</rect></_>
    <_>
      <rect>
        0 0 2 10</rect></_>
    <_>
      <rect>
        0 0 7 9</rect></_>
    <_>
      <rect>
        0 0 8 10</rect></_>
    <_>
      <rect>
        0 0 9 10</rect></_>
    <_>
      <rect>
        0 0 10 6</rect></_>
    <_>
      <rect>
        0 0 10 8</rect></_>
    <_>
      <rect>
        0 0 10 9</rect></_>
    <_>
      <rect>
        0 0 10 10</rect></_>
    <_>
      <rect>
        0 1 3 8</rect></_>
    <_>
      <rect>
        0 1 5 2</rect></_>
    <_>
      <rect>
        0 1 8 7</rect></_>
    <_>
      <rect>
        0 3 3 9</rect></_>
    <_>
      <rect>
        0 3 10 9</rect></_>
    <_>
      <rect>
        0 4 9 8</rect></_>
    <_>
      <rect>
        0 5 2 2</rect></_>
    <_>
      <rect>
        0 6 1 1</rect></_>
    <_>
      <rect>
        0 6 2 8</rect></_>
    <_>
      <rect>
        0 7 2 2</rect></_>
    <_>
      <rect>
        0 9 2 3</rect></_>
    <_>
      <rect>
        0 9 10 7</rect></_>
    <_>
      <rect>
        0 11 1 3</rect></_>
    <_>
      <rect>
        0 11 2 1</rect></_>
    <_>
      <rect>
        0 12 2 2</rect></_>
    <_>
      <rect>
        0 12 10 6</rect></_>
    <_>
      <rect>
        0 14 2 2</rect></_>
    <_>
      <rect>
        0 14 6 2</rect></_>
    <_>
      <rect>
        0 15 2 2</rect></_>
    <_>
      <rect>
        0 15 9 3</rect></_>
    <_>
      <rect>
        0 15 10 3</rect></_>
    <_>
      <rect>
        0 16 6 2</rect></_>
    <_>
      <rect>
        0 18 7 4</rect></_>
    <_>
      <rect>
        0 19 4 2</rect></_>
    <_>
      <rect>
        0 21 4 3</rect></_>
    <_>
      <rect>
        0 26 1 1</rect></_>
    <_>
      <rect>
        1 0 6 8</rect></_>
    <_>
      <rect>
        1 0 7 1</rect></_>
    <_>
      <rect>
        1 3 1 9</rect></_>
    <_>
      <rect>
        1 6 2 8</rect></_>
    <_>
      <rect>
        1 7 1 1</rect></_>
    <_>
      <rect>
        1 10 2 1</rect></_>
    <_>
      <rect>
        1 12 6 6</rect></_>
    <_>
      <rect>
        1 15 2 5</rect></_>
    <_>
      <rect>
        1 15 6 4</rect></_>
    <_>
      <rect>
        1 18 5 4</rect></_>
    <_>
      <rect>
        2 1 9 6</rect></_>
    <_>
      <rect>
        2 8 2 2</rect></_>
    <_>
      <rect>
        2 20 5 2</rect></_>
    <_>
      <rect>
        2 21 7 3</rect></_>
    <_>
      <rect>
        2 24 4 2</rect></_>
    <_>
      <rect>
        3 0 4 3</rect></_>
    <_>
      <rect>
        3 2 2 2</rect></_>
    <_>
      <rect>
        3 4 9 8</rect></_>
    <_>
      <rect>
        3 6 9 8</rect></_>
    <_>
      <rect>
        3 7 3 1</rect></_>
    <_>
      <rect>
        3 9 9 7</rect></_>
    <_>
      <rect>
        3 10 2 1</rect></_>
    <_>
      <rect>
        3 15 4 4</rect></_>
    <_>
      <rect>
        3 15 8 5</rect></_>
    <_>
      <rect>
        3 21 3 2</rect></_>
    <_>
      <rect>
        4 6 3 2</rect></_>
    <_>
      <rect>
        4 8 2 2</rect></_>
    <_>
      <rect>
        4 9 2 1</rect></_>
    <_>
      <rect>
        4 10 6 3</rect></_>
    <_>
      <rect>
        4 16 4 3</rect></_>
    <_>
      <rect>
        4 17 2 2</rect></_>
    <_>
      <rect>
        4 18 3 3</rect></_>
    <_>
      <rect>
        4 18 5 3</rect></_>
    <_>
      <rect>
        4 21 5 3</rect></_>
    <_>
      <rect>
        5 0 3 1</rect></_>
    <_>
      <rect>
        5 6 1 1</rect></_>
    <_>
      <rect>
        5 9 2 1</rect></_>
    <_>
      <rect>
        5 10 2 2</rect></_>
    <_>
      <rect>
        5 11 4 3</rect></_>
    <_>
      <rect>
        5 21 4 2</rect></_>
    <_>
      <rect>
        5 24 3 2</rect></_>
    <_>
      <rect>
        6 0 8 8</rect></_>
    <_>
      <rect>
        6 1 2 2</rect></_>
    <_>
      <rect>
        6 3 8 7</rect></_>
    <_>
      <rect>
        6 4 2 2</rect></_>
    <_>
      <rect>
        6 8 2 1</rect></_>
    <_>
      <rect>
        6 9 2 1</rect></_>
    <_>
      <rect>
        6 11 1 1</rect></_>
    <_>
      <rect>
        6 11 8 6</rect></_>
    <_>
      <rect>
        6 16 8 4</rect></_>
    <_>
      <rect>
        7 6 1 2</rect></_>
    <_>
      <rect>
        7 7 2 2</rect></_>
    <_>
      <rect>
        7 7 5 5</rect></_>
    <_>
      <rect>
        7 9 1 1</rect></_>
    <_>
      <rect>
        7 9 4 4</rect></_>
    <_>
      <rect>
        7 10 1 1</rect></_>
    <_>
      <rect>
        7 10 4 4</rect></_>
    <_>
      <rect>
        7 11 3 2</rect></_>
    <_>
      <rect>
        7 14 1 1</rect></_>
    <_>
      <rect>
        7 14 3 3</rect></_>
    <_>
      <rect>
        7 18 2 1</rect></_>
    <_>
      <rect>
        7 18 6 4</rect></_>
    <_>
      <rect>
        7 19 2 3</rect></_>
    <_>
      <rect>
        7 19 4 2</rect></_>
    <_>
      <rect>
        7 24 2 2</rect></_>
    <_>
      <rect>
        7 24 3 2</rect></_>
    <_>
      <rect>
        8 0 3 1</rect></_>
    <_>
      <rect>
        8 2 5 4</rect></_>
    <_>
      <rect>
        8 8 5 3</rect></_>
    <_>
      <rect>
        8 15 4 5</rect></_>
    <_>
      <rect>
        8 17 1 1</rect></_>
    <_>
      <rect>
        8 18 1 2</rect></_>
    <_>
      <rect>
        8 19 4 3</rect></_>
    <_>
      <rect>
        9 0 3 1</rect></_>
    <_>
      <rect>
        9 0 6 7</rect></_>
    <_>
      <rect>
        9 0 7 4</rect></_>
    <_>
      <rect>
        9 0 7 8</rect></_>
    <_>
      <rect>
        9 2 6 1</rect></_>
    <_>
      <rect>
        9 5 3 2</rect></_>
    <_>
      <rect>
        9 6 7 8</rect></_>
    <_>
      <rect>
        9 9 4 3</rect></_>
    <_>
      <rect>
        9 10 1 1</rect></_>
    <_>
      <rect>
        9 12 3 3</rect></_>
    <_>
      <rect>
        9 15 7 5</rect></_>
    <_>
      <rect>
        9 17 1 2</rect></_>
    <_>
      <rect>
        10 2 6 6</rect></_>
    <_>
      <rect>
        10 16 3 3</rect></_>
    <_>
      <rect>
        10 17 4 3</rect></_>
    <_>
      <rect>
        10 20 4 3</rect></_>
    <_>
      <rect>
        11 0 3 1</rect></_>
    <_>
      <rect>
        11 2 2 2</rect></_>
    <_>
      <rect>
        11 5 2 2</rect></_>
    <_>
      <rect>
        11 5 6 8</rect></_>
    <_>
      <rect>
        11 9 6 7</rect></_>
    <_>
      <rect>
        11 10 3 4</rect></_>
    <_>
      <rect>
        11 14 2 1</rect></_>
    <_>
      <rect>
        11 14 3 2</rect></_>
    <_>
      <rect>
        11 18 5 4</rect></_>
    <_>
      <rect>
        11 21 3 3</rect></_>
    <_>
      <rect>
        11 21 5 3</rect></_>
    <_>
      <rect>
        11 24 6 2</rect></_>
    <_>
      <rect>
        12 7 3 4</rect></_>
    <_>
      <rect>
        12 8 1 1</rect></_>
    <_>
      <rect>
        12 9 3 4</rect></_>
    <_>
      <rect>
        12 12 5 4</rect></_>
    <_>
      <rect>
        12 13 1 1</rect></_>
    <_>
      <rect>
        12 16 3 4</rect></_>
    <_>
      <rect>
        12 18 5 4</rect></_>
    <_>
      <rect>
        12 19 2 2</rect></_>
    <_>
      <rect>
        12 20 2 2</rect></_>
    <_>
      <rect>
        13 1 3 1</rect></_>
    <_>
      <rect>
        13 11 3 4</rect></_>
    <_>
      <rect>
        13 15 3 4</rect></_>
    <_>
      <rect>
        14 1 4 2</rect></_>
    <_>
      <rect>
        14 11 5 5</rect></_>
    <_>
      <rect>
        14 12 1 1</rect></_>
    <_>
      <rect>
        14 12 3 2</rect></_>
    <_>
      <rect>
        14 13 5 3</rect></_>
    <_>
      <rect>
        14 16 1 2</rect></_>
    <_>
      <rect>
        14 20 4 3</rect></_>
    <_>
      <rect>
        14 23 4 2</rect></_>
    <_>
      <rect>
        15 10 2 3</rect></_>
    <_>
      <rect>
        15 10 3 3</rect></_>
    <_>
      <rect>
        15 10 3 4</rect></_>
    <_>
      <rect>
        15 11 1 1</rect></_>
    <_>
      <rect>
        15 12 1 1</rect></_>
    <_>
      <rect>
        15 15 3 2</rect></_>
    <_>
      <rect>
        16 15 1 1</rect></_>
    <_>
      <rect>
        16 16 4 2</rect></_>
    <_>
      <rect>
        17 0 4 2</rect></_>
    <_>
      <rect>
        17 2 2 2</rect></_>
    <_>
      <rect>
        17 14 2 2</rect></_>
    <_>
      <rect>
        18 12 4 6</rect></_>
    <_>
      <rect>
        18 15 1 1</rect></_>
    <_>
      <rect>
        18 16 4 3</rect></_>
    <_>
      <rect>
        19 15 2 1</rect></_>
    <_>
      <rect>
        19 18 2 2</rect></_>
    <_>
      <rect>
        20 16 2 3</rect></_>
    <_>
      <rect>
        20 22 2 2</rect></_>
    <_>
      <rect>
        21 0 3 5</rect></_>
    <_>
      <rect>
        21 8 3 5</rect></_>
    <_>
      <rect>
        21 11 2 1</rect></_>
    <_>
      <rect>
        21 22 3 2</rect></_>
    <_>
      <rect>
        21 24 3 2</rect></_>
    <_>
      <rect>
        22 12 2 1</rect></_>
    <_>
      <rect>
        22 16 2 1</rect></_>
    <_>
      <rect>
        23 5 2 8</rect></_>
    <_>
      <rect>
        23 9 2 6</rect></_>
    <_>
      <rect>
        23 14 2 1</rect></_>
    <_>
      <rect>
        23 15 1 1</rect></_>
    <_>
      <rect>
        24 0 2 2</rect></_>
    <_>
      <rect>
        24 0 2 10</rect></_>
    <_>
      <rect>
        24 6 2 8</rect></_>
    <_>
      <rect>
        24 9 1 2</rect></_>
    <_>
      <rect>
        24 9 2 7</rect></_>
    <_>
      <rect>
        24 11 2 6</rect></_>
    <_>
      <rect>
        24 12 1 1</rect></_>
    <_>
      <rect>
        24 12 2 6</rect></_>
    <_>
      <rect>
        24 13 2 1</rect></_>
    <_>
      <rect>
        24 13 2 4</rect></_>
    <_>
      <rect>
        24 18 2 3</rect></_>
    <_>
      <rect>
        24 19 2 2</rect></_>
    <_>
      <rect>
        25 13 1 1</rect></_>
    <_>
      <rect>
        27 0 1 8</rect></_>
    <_>
      <rect>
        27 0 1 10</rect></_>
    <_>
      <rect>
        27 11 1 1</rect></_>
    <_>
      <rect>
        27 26 1 1</rect></_></features></cascade>
</opencv_storage>
